Date,EFA,EEM,GLD,TLT
2008-01-18,0.08098188416800545,-1.4435896271530737,-0.35514792393659844,-2.4657781398990544
2008-01-25,-0.06101651433441457,-0.026251471675166727,-0.6578193875459579,1.4912293720630938
2008-02-01,0.02519890092880367,-1.1357311909496275,1.3562035765038483,-1.7287906240055453
2008-02-08,-1.1327125516208971,-1.7804514799421582,-2.525164870541989,-7.535921125676914
2008-02-15,-2.4107266746815306,-4.189411840277392,6.779770283013947,-10.628968479391169
2008-02-22,-0.6305335646015047,-1.0497091095627145,2.3131582405700613,-3.318024970756449
2008-02-29,-0.5573995387509154,-0.8881051319770061,1.8337257609226296,-4.659585778709163
2008-03-07,-0.2137839261859258,-0.3198017866790219,1.7638881224809884,1.4861667993421988
2008-03-14,-1.288251162493855,2.0305784011549033,2.9631178561518072,-1.9647757763104234
2008-03-21,1.028190376697672,-1.4534176412139734,1.2424437862410094,-1.5219072511726854
2008-03-28,0.4347484600860758,0.8157378982032331,-0.5023236079894191,-0.5909836214440305
2008-04-04,-0.07027734306056788,-0.04791874230151838,0.8284697117873836,-1.0299783293468425
2008-04-11,1.0123017825548795,-1.0443129925627974,-0.5704027771748938,-1.2942608195066396
2008-04-18,0.9657389520439783,-0.9464197213276164,-0.5208087648446115,-1.2247198370895118
2008-04-25,-1.3193881777984453,2.8032822509247253,-1.171735585550942,-2.383113906681941
2008-05-02,-0.7819710391291612,-1.1884624462236495,-1.3265178251360938,-4.62059598069817
2008-05-09,-1.6161018137517527,-2.495263839555413,-2.5657441815886584,-8.465610997733975
2008-05-16,-2.440568846472254,3.657037176999874,2.334112590171772,-3.871418190972072
2008-05-23,-7.6228252003216515,12.139223143305488,-6.286784134899802,-12.187376422333589
2008-05-30,131.2126626213485,-295.63654054450194,144.12540590540772,-257.51322234846253
2008-06-06,1.613067471789202,-1.58416695954844,1.3321500597687919,2.21913000298237
2008-06-13,0.5587023184517816,0.9493414278204675,0.7072173196210894,1.5298624302757444
2008-06-20,0.7160102807912079,1.1825490156782843,-0.6226746158995096,1.9581351906036857
2008-06-27,0.5649779066721683,1.0260126111076247,-0.6577015708712288,-0.8679253603177295
2008-07-04,0.49134265211912886,0.8784382312309482,-0.4338538707202837,-0.6553978191996699
2008-07-11,0.5480281883636389,0.897395109339179,0.6898910135226832,1.2962847186783022
2008-07-18,0.6307419877386735,1.0021862485706903,-0.9612288306625549,1.5741033520343408
2008-07-25,1.155755245833193,-0.7344583175233717,0.8354818496083811,1.2751724914461726
2008-08-01,0.4635082113183353,0.782431849457768,0.5681239847133046,0.957405167465526
2008-08-08,0.6303357764792699,-0.06411151996931164,-0.06636370756573506,0.6944073089742825
2008-08-15,0.36403330507430054,0.6518177132429863,0.4346888294733856,0.6329280367672128
2008-08-22,0.47065817279742417,0.8093471345221106,0.5654819772407988,0.987709231810289
2008-08-29,0.4585549526204633,0.765934556466676,-0.09058619332305129,1.007859321117212
2008-09-05,-0.02072393841877518,0.871314435177577,0.6200149799380861,0.4395185883032291
2008-09-12,0.42755141973646715,0.7486198225685303,0.4335043446540541,1.2835068153203302
2008-09-19,0.5135559120960926,0.8918269471336107,0.6070315404355853,1.371451302187223
2008-09-26,0.3892294693912821,0.7063323914835662,-0.2381109203664428,1.0133799478548577
2008-10-03,0.459861153489614,0.46449543800835524,0.6516272725316634,-0.10800247558589082
2008-10-10,0.22719222424428231,0.6906260775480222,0.4075598900902822,-0.06351612538524609
2008-10-17,0.1499629205844304,0.3315760307273097,0.0005227023034332992,0.4775304024257042
2008-10-24,0.3173823325105545,0.5700216702472352,0.43402315581111345,0.7363609486415237
2008-10-31,0.3411170700548336,0.6116774061607941,-0.039640600801513985,1.1413036940583536
2008-11-07,-0.010045659071528323,0.8382403697385294,-0.07296292764385373,0.9005873860932758
2008-11-14,-0.004780652699142518,0.8344453181664768,0.5158750932289152,0.7987276591266893
2008-11-21,0.29128495432669776,0.544279353414538,-0.03450769096426537,-0.29600432568449797
2008-11-28,0.542742576258556,0.06365411687576117,-0.4613155664405293,1.0221050920175565
2008-12-05,0.6081866378198595,-0.20072468443621627,-0.08415937790024006,0.785737096066274
2008-12-12,0.11833243868606469,0.2780619841212788,0.656172526771491,0.6523086629609791
2008-12-19,0.06179613894886549,0.21532225608762,-0.10059376558761432,-1.0302153771731215
2008-12-26,-0.23694260526506827,1.2321288743172776,-0.16861060994765836,-0.6461417922367945
2009-01-02,0.6369548769872959,-0.12590296915361332,1.2012820074353203,1.119048759323739
2009-01-09,0.5994529884564583,-0.054437178762357874,0.6653825145425777,1.0261959129721063
2009-01-16,0.39091255760722277,0.6699216587100958,0.6276699162796019,1.3118350642474403
2009-01-23,0.32060553200827346,0.5938368533700666,-0.184821207399508,-0.43976047426111453
2009-01-30,-0.14710328150163088,0.9212996214364093,-0.6067324718885388,-0.7775029738447479
2009-02-06,0.5874297087390676,-0.1817220143527658,-0.2569084895587301,-0.8234407367888203
2009-02-13,0.3962324749886781,0.6765769683385123,0.6677696506505327,1.2444007612220673
2009-02-20,0.4023503156124102,0.6890525993604584,-0.634039314098444,1.1589422794626638
2009-02-27,0.36764502119579845,0.6379462593225611,0.5977424304740452,1.043059337780972
2009-03-06,0.36391902735627646,0.6331343514254195,0.5857048725662583,1.0137372553491266
2009-03-13,0.4050977522283583,0.6897918399180734,-0.2454470636374787,1.2173888506908341
2009-03-20,0.012200310769053369,0.16238310047247584,-0.8288198809516188,-1.1648614670783952
2009-03-27,-0.34541485655125026,1.1389078025582693,-0.39888345764712607,-1.081300877087713
2009-04-03,0.7513386794026387,-0.4302043927041259,-0.45792164467287744,-1.0900257250825376
2009-04-10,0.7781223607355878,-0.5461329941661788,1.0890619376154798,-1.3118217738251656
2009-04-17,-0.16496622643777195,-0.07353330599218538,-0.675478928050466,-2.167510229611481
2009-04-24,-0.325455818693774,-0.2945666279030562,1.9230714231868404,-3.078260030330386
2009-05-01,0.42973753810198545,0.7509642868950639,1.2836334565918777,-1.2362048334088631
2009-05-08,1.5502645902257637,-1.9174654898066388,2.471784202633482,-3.165061886976729
2009-05-15,-13.212671898707669,24.185239859423838,-22.881869117255007,33.04228208011927
2009-05-22,-0.23099424931180024,-0.16183191813827968,-0.8300577225731944,-2.35641686176376
2009-05-29,-0.4674996693286664,1.6943911085477854,-0.9340347167873031,1.6039637725348137
2009-06-05,-0.42873162955961286,1.2995786439573527,-0.516373149717616,-0.9180382830493862
2009-06-12,-0.9826326753436985,1.9718252749079594,-1.1353746125465196,-1.75288626670448
2009-06-19,-0.4489668394069093,1.2584820400813195,-0.4898417483723794,-0.8425354725501184
2009-06-26,0.006786345859585152,0.1854807694201157,-0.18885714228529754,-0.6861538968809843
2009-07-03,0.40694611745959275,0.7097343897882284,-0.42319238389035696,-0.44169218884028183
2009-07-10,0.4885080500612471,0.7527937743832274,-0.5017113136335541,1.070280227000004
2009-07-17,0.059916124973737106,0.22561165782500292,-0.35436844810597,0.6872604363205643
2009-07-24,0.5669624004516685,0.8068670386525483,0.98826484346991,1.1367909649421506
2009-07-31,0.07427009600523915,0.23328812555852374,0.7277199127696975,0.5143850983626483
2009-08-07,-0.4418413653368378,1.1635026434844082,-0.3856987567592363,-0.6414089086465176
2009-08-14,0.39941368749988726,0.676600267329599,-0.3695497584255,-0.4107100148041263
2009-08-21,0.32142506110574764,0.5742956363388094,-0.10836524050373539,-0.1902777407357672
2009-08-28,0.31610410961024105,0.5443424191238275,0.9550151639427343,-0.23651971335036204
2009-09-04,0.4999728319058949,0.03216839287568263,0.6471173790881463,-0.2796528729748404
2009-09-11,0.5306153779748013,0.10512239555083358,-0.12493309345832804,0.5068607944784065
2009-09-18,0.301720880795024,0.5363783887124205,0.5791220267873864,-0.18893703598499245
2009-09-25,0.3019202964395502,0.5511473589368521,-0.048752795070212684,-0.09824329960537448
2009-10-02,0.4369644517808018,0.1570923617351463,0.01515525687187591,-0.11629578218278236
2009-10-09,0.3830719757952008,0.18868217763121464,0.4756156873343707,-0.09863627047874779
2009-10-16,0.29914774827182367,0.5202616241468085,0.4028646954301811,0.32792403803125914
2009-10-23,0.4058056801861838,0.14511753212124123,0.5098777006381197,-0.12093841687175955
2009-10-30,0.31932975674777353,0.5793814450493953,-0.11996256302321878,-0.09951627358407955
2009-11-06,0.4262284266627443,0.08415073842047871,0.5398978088028582,-0.13786842581261527
2009-11-13,0.3123856620301497,0.5398794551696318,0.42716709292643956,0.3820135018421212
2009-11-20,0.3937004070311354,0.12891513778544006,0.5072749744472828,-0.09943358296099525
2009-11-27,0.4289177442337757,0.061897161353541286,0.8354018603896372,0.3594857551421282
2009-12-04,0.32469921087199793,0.5839898537955914,-0.10826348771771599,-0.08820646673568999
2009-12-11,0.35789815476494624,0.6352504742032492,-0.20221514521171846,-0.13773820776072987
2009-12-18,0.3997747693069438,0.6575903133307968,-0.16972399694738038,0.45781142290744625
2009-12-25,0.3578100518529057,0.5837485781849763,0.4432300137534301,0.4878947019412387
2010-01-01,0.3726884147578087,0.5956996218733908,0.4586637997777584,0.5322413772732196
2010-01-08,0.5501786238599564,-0.03440161495461336,0.5770531383932881,0.4705833888068847
2010-01-15,0.3658548293225472,0.5973450535440943,0.46507047540962654,0.5498192192879855
2010-01-22,0.31243208071646045,0.5653634170414925,0.4564353432224153,-0.19412785455542902
2010-01-29,0.4807879689330061,0.7564785419177209,-0.3019395099864553,0.6060725838243015
2010-02-05,0.48313416538089715,0.7281128142103857,0.6270851187275777,0.9674200798243641
2010-02-12,0.6351871727078837,-0.15732055757045593,0.6730883610761624,0.6023894844084984
2010-02-19,-0.2934776579309655,0.9866825368204708,0.6900050848160229,0.6054159983929311
2010-02-26,-0.09071810496000121,0.019207530537645567,1.0637830543641735,0.6474126057065401
2010-03-05,0.6068497270201654,-0.2773727403546111,0.674693197861944,-0.3908159517442097
2010-03-12,0.48895380146969014,0.749819476006202,0.6106845054079331,1.0779066183615384
2010-03-19,0.4592678284332319,0.7184841817327037,0.5746577968184232,0.9941291591749343
2010-03-26,0.7173343093536246,-0.45742067158385424,0.7515592888458702,-0.5475380681143427
2010-04-02,-0.0854253469980848,0.04603169585622702,0.9711502401496412,0.646343281557418
2010-04-09,0.6645103032280728,-0.1892805797453514,0.6324986797452411,0.6388041054218118
2010-04-16,0.5528374390358195,0.8047254690918617,0.6569715046004474,1.307543060611521
2010-04-23,-0.29570674011077114,-0.12454277499649136,-0.382332304555187,-1.7684067621858715
2010-04-30,2.7042951984662,-1.9546668931304456,1.2435692920399641,2.182497796419182
2010-05-07,-8.226429749485941,5.8375610324118945,11.005640255053507,-8.307873013207645
2010-05-14,-23.237987026554407,26.766063549717746,-17.854442009889922,-27.29108277924626
2010-05-21,-0.2552831110913948,-0.11455091917923588,-0.36083514756887813,-1.686868750755103
2010-05-28,-1.0778036115504164,2.0516911249782375,1.415739156971234,1.774695354752179
2010-06-04,-0.5748264369130172,-0.49049136505658186,-0.8011111184330522,-2.9440850356997683
2010-06-11,-14.72592905916257,14.885256118402548,-10.413475899842828,-17.045726299638865
2010-06-18,-1.7141256492438792,-1.7080552431280829,-2.09128952798635,-6.690183415930925
2010-06-25,-0.5165208493702348,-0.35309239571383144,-0.6479771446375207,-2.41756280033428
2010-07-02,-0.746819407516254,1.3175278401868553,-0.4094590996545968,-1.0149398569754964
2010-07-09,-0.4448684023985382,-0.26886154083738634,-0.5834825453501032,-2.114440827730678
2010-07-16,-2.0364592633056455,2.420074539215854,-1.3664189999609146,-2.54824926827341
2010-07-23,-24.880736747563788,-24.45557818403657,38.78571197801673,-72.62846912526983
2010-07-30,4.628211364427205,-3.6880658949959333,7.323283725699194,5.360702940321848
2010-08-06,1.5546135373243644,1.8777827091885424,2.119060873450846,4.642347367715717
2010-08-13,-1.0212854347521603,-0.8933605762461587,-1.5210479263525518,-4.101702326702878
2010-08-20,-0.7734590839452342,-0.6401874191561157,-1.1802815992303421,-3.212510746436636
2010-08-27,3.2064578936921104,-2.056072286848472,2.448893304741688,3.1779505660345952
2010-09-03,0.766967768989101,0.9679120535832331,-0.7254657249728501,1.6523756159587863
2010-09-10,0.6102596140962877,0.8189126797248507,-0.48358332829969464,1.2157192263040242
2010-09-17,0.39759879196792625,0.63712505346572,0.9231537634617063,-0.3625435491531852
2010-09-24,0.37806890736210796,0.6119504498857724,0.8544804624365246,-0.29771357220535544
2010-10-01,0.3573233558078641,0.5868089896529307,0.7741070091886731,-0.24233210963967755
2010-10-08,0.5242838930471967,0.7500256751715062,0.7272079089818599,0.8887638223515297
2010-10-15,0.5044349748716224,0.7343448795895586,0.7013980143368592,0.8360042128426565
2010-10-22,0.5367174798076633,0.7685197899481899,0.7354647109353433,0.9273518472929092
2010-10-29,0.5480175556111275,0.7576617808951367,-0.39829360149819226,0.9979183467633299
2010-11-05,0.37227751362492256,0.6015376531199772,0.81243986963359,-0.3046402783634683
2010-11-12,0.6669420320086878,0.9243462019929467,0.9091103097803575,1.2514570212939646
2010-11-19,0.5784621389077707,0.822564976936663,0.7808584118395234,0.9937726417509445
2010-11-26,0.6279136495234034,0.8150604776059467,-0.8572846947834905,-0.5058447942749165
2010-12-03,0.5246490778846988,0.7695444155614091,0.703367974845375,0.8691716078112717
2010-12-10,0.39122041677452124,0.6413654239792823,0.8942507741308006,0.5278282070874059
2010-12-17,0.47893058798644716,0.6891348302802873,-0.273704595859826,0.6808979633217451
2010-12-24,0.3558576415418848,0.5860922419137227,0.43373208844429134,0.4055216726961188
2010-12-31,0.36024729740906913,0.5922989742788083,0.42839135000817086,0.394672382198465
2011-01-07,0.347437293297312,0.5767560442368733,0.4055300259047996,0.3574884909514342
2011-01-14,0.3578155375768577,0.5628626037454163,-0.031940430531886235,-0.04423066627514664
2011-01-21,0.3365416407724906,0.5574057349954114,0.5371901650433523,-0.1590187610697989
2011-01-28,0.3844141057564068,0.6228299398777404,0.4482968955534096,0.4296423283954779
2011-02-04,-0.08527070184138141,0.7467505789657669,0.45419341654714573,0.28773726246672343
2011-02-11,0.05170328888572606,0.2760242256773684,0.5782326534202629,0.26272188567741184
2011-02-18,-0.08032192035239483,0.7535483262945477,0.4474270961540609,0.284363811088023
2011-02-25,0.57091804655205,0.07296803446155131,0.46778340823945364,0.2977615228967892
2011-03-04,0.03793250674347903,0.24300603861906245,0.5899167098964563,-0.21129089560776243
2011-03-11,0.41914146137511255,0.6645213923227056,0.4924418384184347,0.47056983655169293
2011-03-18,0.03619036638296502,0.25427668622765,0.6061891090992305,0.2855096515026099
2011-03-25,0.048379298845955265,0.24774620299299044,0.039892202759287246,-0.21769230225149147
2011-04-01,0.30570188412625576,0.5285745011047451,0.4590949638417622,-0.08743398165062535
2011-04-08,-0.12052194366695224,0.7900485104334423,0.4767341102844884,0.32457607262503474
2011-04-15,0.5265134180341307,0.010696225149251504,0.535650039249872,-0.1952303456736989
2011-04-22,0.576520917938045,0.05048551436611781,0.4926377119362678,0.3524856405926666
2011-04-29,0.32046056835299996,0.5441579746957212,0.4640360457387461,-0.12353931390508771
2011-05-06,0.4406665172946598,0.6905815473856998,0.5166241544454886,0.5830906115095686
2011-05-13,0.5756499607808827,0.85767208774128,0.6953838069256847,0.8941957685336241
2011-05-20,-0.9933903495259673,1.7752416818207788,1.1329086017792027,1.024898014835784
2011-05-27,0.497322403786407,0.7628206962890918,0.626934334195084,0.7119626360432096
2011-06-03,0.4705917955934975,0.7240684243439142,0.5889244356348751,0.6495054958861656
2011-06-10,0.8404178676756544,1.155585829999782,1.1334390280290996,1.531187922778951
2011-06-17,1.5714472104462036,2.0935805749778282,5.294094659477408,3.679002019372053
2011-06-24,0.6601937548214352,0.9141097207855062,0.9265730077109795,1.148444984630551
2011-07-01,0.499213387013993,0.738441084697389,0.6641023835828848,0.7505072411116138
2011-07-08,0.39735548133414955,0.608839052627566,0.620621029209359,-0.22765113410598328
2011-07-15,-0.5876423620933078,0.3629973731203783,0.9566306551980401,0.5051815750178988
2011-07-22,0.02981363131983017,0.24660058282442882,0.7168800178227097,0.45859804658554015
2011-07-29,-1.1783110663321634,1.9030921878963998,1.4599612878588872,0.8074695082355847
2011-08-05,36.97853356361481,-51.82365869552801,-80.1803785898549,-83.42893012982698
2011-08-12,-2.3101856663999207,-1.8700588166743977,-14.098537789206999,4.434175890556184
2011-08-19,3.3107637990625554,-2.94681186268116,6.947194571357828,-3.3463259643625656
2011-08-26,-8.3441267683739,10.450763535606725,-9.032593613447762,9.962551960803768
2011-09-02,-1.3807221043814448,2.3104152072767983,-1.5393963796969505,1.9677389920687185
2011-09-09,2.379231231200942,-2.06765942570986,2.6306970963159504,-2.4658243905986943
2011-09-16,-8.04978280360563,-8.387605275992478,31.32888029787302,-27.974280002003823
2011-09-23,-0.12547640959876305,0.09102170064591375,0.7643914858864276,-0.8308090461275217
2011-09-30,0.04138982540368355,0.25696726584180263,0.6779269014528463,0.3969693165722063
2011-10-07,-0.19430211769688532,0.004890607643750489,-0.3024023203862386,-0.8438316056436193
2011-10-14,1.0640620982331441,1.3956888574016926,5.360143702500796,-2.0146408175750548
2011-10-21,1.09829114966114,1.2307482729252364,-4.414704385969535,-0.9645153809740501
2011-10-28,-3.1882859014760405,5.437478231064784,3.439304605416086,3.841293349212338
2011-11-04,0.8648828863979396,1.0686223848248133,-1.45801830227828,-0.8613958041669925
2011-11-11,-0.2876708926998024,-0.06128651068936897,1.5946996984791493,0.8497044004385637
2011-11-18,1.2250474459210787,-0.3487885500440755,0.9132401751781024,0.9338745581682838
2011-11-25,-0.35274264358639584,0.8855087352106379,-0.13164368121040837,-0.3665690556418981
2011-12-02,-0.7445566967745361,1.163684893908771,1.0877127261291348,-0.8281044631431509
2011-12-09,-0.03303923135896092,0.12013003747604678,-1.8277533310298182,0.9316481365186657
2011-12-16,-0.1991450140669513,-0.048104942608941936,-0.3018294220467298,-1.0062577700318522
2011-12-23,-0.2976609824524712,-0.16221160730358664,-0.4336867704887525,-1.2691654543351982
2011-12-30,-0.7230947909233869,1.2040522006759087,-0.3916677031886103,-0.6942602887292326
2012-01-06,-0.2276690970516848,-0.07969091037839826,-0.331136156578123,-1.0913735547652283
2012-01-13,-0.880085652337935,1.3371287227373347,-0.4948441886419468,-0.8375537264108679
2012-01-20,1.4348105620137979,1.543869086695576,-5.613281114365893,-1.1953019473803472
2012-01-27,-6.7766200446626215,6.262819169382874,-4.410452522774141,-5.8680042750001515
2012-02-03,18.860999507645957,20.438565431587676,-29.913975328162508,48.49924898710252
2012-02-10,-2.487011603838586,2.7037868611081244,-1.5625094604307996,-2.178552736189663
2012-02-17,57.69295866871106,-92.03576211349487,63.84992970625963,-81.06258814890158
2012-02-24,16.85602852453573,-28.538546032957917,38.556993622483276,-27.066168365744886
2012-03-02,-17.586808583525524,-4.56042424075612,-7.905386004710663,-24.29130669629539
2012-03-09,-10.216648285440783,-11.44831554294776,14.323068425559335,-35.99178276662134
2012-03-16,0.9223280595415062,1.3152249721210332,0.9417956081784802,1.9684783453516983
2012-03-23,-45.0544424061155,-57.61688260136674,-44.872507687884436,-126.97652876971391
2012-03-30,1.6580895962315534,2.2900937678818885,1.6760372706512334,4.20487867870471
2012-04-06,-1.914897867785304,-2.259414791165435,-1.9228099484922776,-5.936148726744852
2012-04-13,-5.776766378145426,6.671502602727349,-4.429742712245055,-5.46599086223701
2012-04-20,5.985602334534141,-4.177523847971715,2.4823520143614033,4.031334522809954
2012-04-27,0.8583399679988926,1.2511750218660822,0.9119841380825111,2.001184045884292
2012-05-04,0.7357530132921948,1.0854918728853136,0.8266329857861827,1.6467055757442421
2012-05-11,1.5811591097439024,2.0998771343156806,-3.418582069623384,2.6827032509629527
2012-05-18,-1.3127788386805692,2.065986714078434,-1.0465760941112774,-1.2864056341477093
2012-05-25,-0.702523412727976,-0.7297052227494305,-0.775525420807778,-2.6428575440719895
2012-06-01,-1.0555960741891788,1.3140951009553579,1.13013934750393,-0.8932160851729329
2012-06-08,-1.241094347708429,1.9894894862094086,-0.8276175306122875,-1.1674661065065952
2012-06-15,0.39336848662629187,0.5885368044218922,1.747220007255109,-0.6280445270941983
2012-06-22,-0.36614628770650715,-0.30172739360931833,-0.38895893272458487,-1.593041941011697
2012-06-29,2.016914773802454,-2.690355472103384,2.0293493475487505,-2.2260933325121006
2012-07-06,2.6118207595338596,3.3684306379733897,2.730125132969562,6.745214301394739
2012-07-13,1.2868867941386686,1.6073495032489316,-2.0759267414847162,-1.1663881221103503
2012-07-20,1.1515628067602908,1.5812938881627563,2.9273063163128707,2.818896316728151
2012-07-27,-0.4980672825511563,-0.4135059348373873,-0.46563103248196547,-1.7279760350437434
2012-08-03,-0.16270444280968765,0.02467779172625817,1.0876429853248908,0.5444082943443843
2012-08-10,1.7475498874636677,-0.6709860478581424,-0.8008044030321001,1.3507644419690883
2012-08-17,-1.240341529417018,-1.351108865401048,3.9327667172768477,-2.9883020058772094
2012-08-24,-9.52071118085162,7.503717709948058,6.749147342852411,-7.750019262916492
2012-08-31,-0.39808031750395045,2.7042434805320106,4.133950758943688,-3.9782167347647057
2012-09-07,1.3492499985483661,1.1070183206744701,6.394569424776704,-13.089385991759833
2012-09-14,-1.7967267432541885,-1.9699378595272279,-1.6597001044221091,-5.0033219060846825
2012-09-21,3.3588859491437546,3.762153669679435,-6.477785946934142,-3.191271888765205
2012-09-28,1.3894241078939018,1.797249805137561,1.3006621716761322,3.0297151208268573
2012-10-05,-35.97949904992987,-39.74146800262059,65.73328457469682,-74.6096728912552
2012-10-12,-11.172500372463666,8.45700595727029,9.239644089049396,-8.82613871555628
2012-10-19,-24.23309492583043,-25.551427626289083,41.72596182582549,-48.45471057653702
2012-10-26,32.059723900290514,-20.938306391316452,-23.840528950189608,24.412153513381895
2012-11-02,42.71508737487346,47.53902786655931,42.78911139408686,102.61169265886734
2012-11-09,-1.527375145944483,3.442656378422847,-1.6965097697095763,2.3619123069699732
2012-11-16,-6.42146606572323,-7.3253347263529704,-6.638625705699619,-16.69728515159213
2012-11-23,1.956026263638996,-0.7456690131089183,-1.0369275485934653,1.4577947703058363
2012-11-30,1.6989146023995656,-0.979026780503351,1.2309243947540467,1.2600998514886603
2012-12-07,1.593744313825833,-0.8843875855882146,1.1685178245481487,1.1850458839618851
2012-12-14,0.6095626808213481,-0.3621394783771592,1.1647515684219218,-0.48110364104883985
2012-12-21,0.4013654170448424,0.6525102453827039,0.4352425937272808,0.5369861829288658
2012-12-28,0.5738401301391312,0.04449602582866685,0.8039137841137991,0.37431440845387215
2013-01-04,0.3870488114983255,0.6290446032805121,0.41664712377237256,0.49383352279787396
2013-01-11,0.4152011357362846,0.655984861847899,0.39968862761407153,0.7564018711839742
2013-01-18,0.5601639465057642,0.0829502766980057,0.5098971262082198,0.3784704417122037
2013-01-25,0.45423509812187746,0.7048132581586577,0.41832252326234876,0.872979720855563
2013-02-01,0.07587469131070246,0.29536523319131613,0.5785371546274898,0.2323753319943264
2013-02-08,0.42374413135206934,0.6641222149948662,0.45455469200688553,0.5504529902215334
2013-02-15,-0.552808117124532,0.7739464625642891,0.6444141484074983,-0.5142079108148225
2013-02-22,0.4385194195901647,0.6677115277724877,0.45884584335282236,0.5536031600213838
2013-03-01,0.4037004320614721,0.6328309983395237,0.41748050558364863,0.4695078145569562
2013-03-08,0.444880514945865,0.6843199216005846,0.4583247402598804,0.5421773989528651
2013-03-15,0.4644376286814662,0.7114448083181171,0.47354851856074764,0.5611910439796493
2013-03-22,0.4912977147927222,0.7350426695318153,0.4967895864448163,0.6034659019325963
2013-03-29,-0.3130780869904495,0.9974869313988837,-0.5143376663959398,-0.23809704964448664
2013-04-05,1.1040285067139748,-0.1512362655177757,-0.33854546948810643,0.6449310189464991
2013-04-12,0.5387970057643332,0.6977398337552727,-0.28807813034001034,-0.18088220179501346
2013-04-19,7.384851944151492,8.576709013773598,5.126382376585342,14.119911677598896
2013-04-26,5.5371911580512965,6.23720920123966,3.6574852090530023,10.507911292102762
2013-05-03,1.48387682991526,1.5914833288006673,-0.7537184281727214,1.9199562603712028
2013-05-10,1.5161722011129641,1.654364813839348,-0.7839145772284454,1.9669883475465875
2013-05-17,4.119573700904567,4.9361641298052685,2.1321816033275716,10.445576919001429
2013-05-24,-38.67572462531074,-44.58978559093161,-18.85510100867249,-103.14703037400807
2013-05-31,-2.0026278138328535,2.420563580854768,-0.5570138075368898,-1.338312843678701
2013-06-07,-1.5988942450213672,-1.2934819001754903,1.6619636919073257,-2.5194566497750994
2013-06-14,-1.0815279111897858,1.773787568159182,1.3374705181402458,0.9376064503978978
2013-06-21,-0.15501899247663437,0.13560287729207066,0.637510006708541,0.47820909755940266
2013-06-28,-0.5037468856285154,1.0605329836151567,0.5750043086871252,-0.351268544764639
2013-07-05,-0.2161397231645492,1.069208982652323,0.027209463945870947,0.5245905552006236
2013-07-12,-0.49495500373337253,1.5210913997905227,-0.1358511192139665,0.8434285462966069
2013-07-19,-0.48849113261994614,1.3257938841678638,-0.08273296946460516,-0.36268913674666103
2013-07-26,-0.7934123312724408,1.595735177275674,0.6947994475745661,0.8798204518504237
2013-08-02,-0.7994109097931255,1.6047445809922265,0.7023413709003202,0.8715202781033574
2013-08-09,0.02825944693516738,0.261857704208425,-0.46158429258387745,1.304179607383162
2013-08-16,0.6174793792418338,0.9492519877862442,-0.20283000587903252,0.7777582090765398
2013-08-23,0.4515693293103986,0.86342602047888,0.48706836918268026,0.6692676167290766
2013-08-30,0.41822780814555083,0.6606074571743674,0.47379897759564416,-0.3149210360247992
2013-09-06,-0.5853417613491398,1.396245649847227,0.6077975169597134,0.7341670162473012
2013-09-13,-0.6757426665200796,1.6033199754216474,-0.1502689531685811,-1.3819966923923948
2013-09-20,-1.3027299956121623,2.8723755047666817,-0.6039285524632827,1.8201606671894772
2013-09-27,-0.8098379767793054,-0.8141899643524715,-0.9754283981740417,2.492043034554637
2013-10-04,-2.4758355436306267,-0.1352674897278856,-0.4578637298365531,-1.9750868171864164
2013-10-11,-1.4634791342522386,2.320751038875106,1.2297674529357359,-2.6715230609245086
2013-10-18,-7.980351633532347,13.025888701365865,-3.6680637573524772,-6.22331884953474
2013-10-25,-3.452032691823394,-5.015036303959681,5.020768050052873,-7.015276090047437
2013-11-01,20.957246299832,-32.89753931194874,10.391829317080674,16.707762563959932
2013-11-08,-2.3592950591001034,3.6191134686807764,1.3474574735174523,2.185958307875862
2013-11-15,1.7036612571739698,-1.425324453712852,-0.7211498561557839,1.4108581084100331
2013-11-22,27.716280295605195,-46.06988344588575,15.74768530924096,20.35827660220331
2013-11-29,-0.7272297397614507,-1.2587824698628767,-0.8813228311216925,-2.008774712731598
2013-12-06,-0.7202344399954543,1.9431275383623983,-0.3847947117117985,1.1883352115563872
2013-12-13,-0.5702898040749531,1.5553068411563804,0.868211615656497,-1.4233114957669677
2013-12-20,0.6341549656607546,1.1863721017417994,0.7470886374309451,1.0562292441338228
2013-12-27,-2.590818876640336,5.494433623366675,-1.4115059088318782,-2.124919510927622
2014-01-03,1.738069197776026,3.09950968707124,-2.6281112792257026,3.831121468889267
2014-01-10,-1.1169841663765778,-1.497245130445978,1.8417254717723135,2.3985536577079634
2014-01-17,-1.8630409554135863,0.21123171963795073,-0.4592661650526597,-1.2967090924767286
2014-01-24,-0.5115663816691809,-0.5992800600132986,-0.8546071804028369,2.2935325724882745
2014-01-31,-0.03858085674294337,0.06441320269413063,-0.17191540362743213,0.835818781028287
2014-02-07,0.7951376601840474,-0.3970485802519006,-0.2173896725725714,0.7473020987310277
2014-02-14,-0.0794112949358231,-0.05657488805243176,0.7859261200385734,-0.7339146426989225
2014-02-21,-0.042930608685813304,0.0009130495770039992,-0.06610618841102667,-0.4927600119725626
2014-02-28,-0.5890882868016785,0.26837062422613767,-0.09165081976153022,-0.590056077186409
2014-03-07,-0.05854056823631776,-0.003481703436371719,0.7441946466644624,-0.7039837200155534
2014-03-14,-0.10815221042036952,-0.09089155678107042,0.8443807104262484,-0.8930770584726635
2014-03-21,2.1987774655529853,-2.475980065019023,1.3786264113522688,1.7491078292083382
2014-03-28,0.7831218072384505,-0.41350522523822764,0.9637949676646413,0.448946744886763
2014-04-04,0.7766010107229044,-0.36318729290363616,0.5557560654144118,0.5698376989062943
2014-04-11,0.844364983454894,-0.455515265842511,0.5803158549093483,0.6273955777194385
2014-04-18,1.3414323956590284,-1.155971136193009,0.8519508462516507,1.0505859774636512
2014-04-25,-4.956515625984126,7.336432193545802,-2.6933992204705173,-4.220395764744513
2014-05-02,0.6728203111851165,1.1917556095590056,0.8340847437708876,1.1910120222255083
2014-05-09,-0.23007967680177233,-0.1000389018664598,0.8674177605500633,0.8850162401853157
2014-05-16,0.45370602223353096,0.8427474648964863,0.5616937088241816,0.6755254794571759
2014-05-23,0.548824614533753,1.0095455332762695,0.6730451627558012,0.9113460589311624
2014-05-30,-10.492597069271852,14.65923840934596,-6.276110651822863,-8.800085301171475
2014-06-06,1.195347476837712,2.26760440778574,1.6556430332839969,2.545617467611823
2014-06-13,0.8388430524662055,-0.575542729313903,-0.196173046890649,-0.5468060054568119
2014-06-20,0.06010969731596405,0.14746516741486798,0.020960043735586714,-0.3012916118226437
2014-06-27,0.6892890397365103,-0.15724463808180578,0.520838897392604,0.5098664306521423
2014-07-04,0.3837793344301401,0.6849728945688498,0.0029045634849379637,0.557821317766361
2014-07-11,0.3683095965197556,0.6591241863982191,0.029748177395372638,0.5101920233700085
2014-07-18,0.39254384328403424,0.6991531078546931,-0.0019797441946065586,0.5955160451691464
2014-07-25,0.33566589273081626,0.6107583410806297,0.08443393569716479,0.43009798642354496
2014-08-01,0.42578839590700146,0.7548992530863736,0.5225532779044334,0.5657941235423077
2014-08-08,0.6445553776316594,-0.0013349232160191349,0.49499288992569945,0.43276205039189536
2014-08-15,0.38878077486827456,0.6797693537054916,0.003790811827797412,0.5495865812034165
2014-08-22,0.6135185677263798,-0.14904694607895652,0.5590386429981916,-0.3682217308350027
2014-08-29,0.3668661639574703,0.6603430935039272,0.4344832918939834,0.4125016059647999
2014-09-05,0.4536344460105469,0.08444134003549841,0.4235944558784436,-0.16050822461733955
2014-09-12,0.42656073702284725,0.818450796842976,0.47270041813201,0.8461206663242178
2014-09-19,2.0100462871813485,-1.104617204322616,0.8111424157219636,0.871326335959457
2014-09-26,-3.4714937956272114,-1.1154271572654828,-1.7626903446008464,-3.0709321606351265
2014-10-03,-0.297402149800017,1.0627674999704173,0.6459129651089799,-0.3201360430487571
2014-10-10,0.007108907171122836,0.15923923283726765,0.5466203749281932,-0.3383618292116115
2014-10-17,-0.4798949073374733,1.2409220338853253,0.798391839417977,-0.4887021452700766
2014-10-24,-1.0885299545253526,2.379287700128582,1.2609201859068548,1.2771530026227709
2014-10-31,-0.5761213326022269,1.594965030626176,0.8669575150243618,0.8132762506118494
2014-11-07,-0.3643257152114521,1.532431184932074,0.6010156419355249,0.560489357234553
2014-11-14,-0.3532383769322778,1.2460936691943978,0.6283782242691395,0.5810189069667113
2014-11-21,-0.5435276999637095,1.5253151168737977,0.7566247810729504,0.7540787841725358
2014-11-28,-0.49602254995662315,1.2365963257440962,0.78783879316908,-0.5519844115372905
2014-12-05,-0.6524810727780325,1.1838062767340443,0.9133889705240407,-0.42674785343079014
2014-12-12,-0.22024497103812402,0.2931760745034778,0.4922682527132884,-0.33745176052488435
2014-12-19,0.020590167888699662,0.17257353972310852,0.4989525618014632,-0.3254637319095851
2014-12-26,0.017481664333638958,0.15127462300695704,0.028612804919879296,-0.2803332433173873
2015-01-02,-0.34796045193338887,0.914723691473566,0.06607142188729931,-0.15767739249460444
2015-01-09,0.035476509058520345,0.17872429360724307,0.7084449323330962,-0.35920431249090856
2015-01-16,-0.03157251051545382,0.08086741160055133,0.5772176907515708,-0.4692505894878301
2015-01-23,-0.10277140736711486,-0.016721312609305525,0.6648780869799312,-0.6188730819192922
2015-01-30,-0.16920786781786046,-0.03305335037739776,0.47824364455758867,0.217893806796444
2015-02-06,-0.30181009069982623,1.2216399631138883,0.5436848094014319,-0.22682704407511997
2015-02-13,-0.34883954507042236,1.0310968349103913,-0.03595237377790861,-0.2711274364956209
2015-02-20,0.009321386358992326,0.18475369941834766,-0.17231845987380548,0.5420535582720726
2015-02-27,0.0028642673633521507,0.17450012374770582,-0.1774526147576025,0.5438876331658847
2015-03-06,-0.19904459505674954,0.8660328015200701,0.548701683212961,-0.2602900851780009
2015-03-13,-0.37187121974199555,1.31586272905356,0.5846497888651161,-0.24990301616846403
2015-03-20,-0.6881110221154599,1.367302688981931,0.9173985283221741,-0.6859953741459635
2015-03-27,-0.10470755738646666,-0.0049429018917800105,-0.11219772342942036,-0.4632871456647265
2015-04-03,-0.209084903226457,-0.14030779235173557,0.9599826177182147,-0.8329956545318138
2015-04-10,-1.2333848896483524,1.964999764188388,1.3381244041502895,-1.188693041382843
2015-04-17,-3.656659557086112,4.508504251932269,3.1371007028233917,-3.3444980212462396
2015-04-24,2.333849353264317,-1.5067006754659584,-1.456172887120172,3.4637715940965395
2015-05-01,1.6958136354656856,2.430395712236189,1.3460143787778711,4.722169989679809
2015-05-08,1.0992899772781073,-0.5567922080394265,0.7246189227530089,0.6446881017370394
2015-05-15,1.0041110563450948,-0.3902891216813995,-0.3024796578071386,0.7166877712378055
2015-05-22,0.4966802979705165,0.8158171477279579,-0.19232330271937648,0.6284050737389901
2015-05-29,1.649160779568283,-1.0879664617359197,-0.7140811204946078,1.1771481689349168
2015-06-05,-6.843476116644716,-9.492074354241552,-5.703775475230593,-20.858509074924804
2015-06-12,1.3122132643122262,1.8211270935465373,1.3995457360190158,1.7483890348518358
2015-06-19,2.1642612085885586,-1.5935976513338521,-1.0640633847146745,1.464788780369609
2015-06-26,-5.040556879072188,7.85323998849398,-4.077183327850877,4.456086096658445
2015-07-03,2.829297638726223,-3.8795514178850063,-0.7934379624053892,-1.3635047284807276
2015-07-10,-2.29977974288959,2.801819697560716,2.173086600476275,-1.608215400186926
2015-07-17,-2.1978937506251173,-2.3931165239782057,-2.780203965968795,-3.6417998710628745
2015-07-24,5.438625852261751,6.831387354557993,6.927312851742117,8.212039248466956
2015-07-31,-4.362043582282872,5.377182639012634,-2.711756729831688,-2.469781116661936
2015-08-07,1.2435128954826382,1.6089607626371532,2.6551580686977507,-1.705525237000934
2015-08-14,-1.9736962539955432,0.06806703598525221,-2.3080681117108064,-1.2982993143958417
2015-08-21,-0.8446270519495047,1.508197267517127,0.7363074376457892,-0.6090194493816505
2015-08-28,-0.1814965801958528,0.8559957323411629,0.6153832560142274,-0.20676225525155623
2015-09-04,0.07686969432353141,0.2550403115176656,-0.0032298036722742812,-0.16493543953549278
2015-09-11,0.3655319307488911,0.6206032695708501,0.4999351253041441,0.3888201388702775
2015-09-18,0.08801876004303488,0.28085346098311714,-0.1476432470072088,0.3662575647919555
2015-09-25,0.06259584408851748,0.23151371431927714,0.8893427870448699,-0.23675966322258368
2015-10-02,-0.1272294014262203,0.9013165893349546,0.5573588040216335,0.38296001089894693
2015-10-09,-0.11672874954160828,0.03469844995708182,1.1583937969953737,0.6270786121346283
2015-10-16,-0.3380440011822192,-0.21201508436782124,-1.438319398707403,1.2652927041501973
2015-10-23,-0.007896008721723122,0.17693465451487012,1.4460396963402546,0.4206123217275306
2015-10-30,0.7225330720734089,-0.1009030691751367,0.670116695907744,0.4789981811730999
2015-11-06,0.11374774110750063,0.30366495351805745,-0.09026964068838693,0.3190235286049364
2015-11-13,0.12464938041162787,0.3282790858396194,0.49540013927953563,0.24946279294984497
2015-11-20,-0.12413231654331058,0.7912077051679238,0.5916827028707805,-0.18352663730285146
2015-11-27,0.3405764473887123,0.6129428998612796,0.4766996984302167,0.3930734147776285
2015-12-04,-0.12209372799677842,0.7346725947055344,0.5960666432519965,-0.42091865477679863
2015-12-11,-0.18267015784334673,0.7750265812719328,0.5092364608439559,-0.1304435612214796
2015-12-18,0.11338595971929766,0.2842300281527159,0.05316075312880168,-0.15332078418682174
2015-12-25,0.457249293046613,0.0628040905188052,-0.011502075294421932,-0.1402311736398698
2016-01-01,0.660114190172822,0.057215185482609066,0.7062564476302008,0.3400670231351517
2016-01-08,0.28887342183214804,0.5308253074518863,0.4879492652100658,-0.06537082549071
2016-01-15,0.10122439561005825,0.2554135192873397,0.08273113167572177,-0.3570841307030664
2016-01-22,0.09997899560253543,0.25804235411384013,0.020591356123368487,-0.21240276158903992
2016-01-29,0.13460655605876948,0.3216702268678717,-0.07014136766442425,0.32386994322465307
2016-02-05,0.062443010160115,0.23180205152848488,0.573892179835358,-0.389229810499702
2016-02-12,0.10155865017680765,0.3082662757337131,0.52444321202327,0.32530436576413263
2016-02-19,0.6296957020375462,-0.37998433641221574,0.5527608525345775,-0.4259889940308532
2016-02-26,-0.2309095029344186,1.385847143796736,0.9406361427828949,0.5276543352389763
2016-03-04,-0.739899986974276,2.4603569262259093,1.7216782915343878,1.0018487270778684
2016-03-11,-0.6350770773837595,1.9384405145039738,1.9251958396499653,0.9727379431706473
2016-03-18,0.9137629832967562,1.582923243821103,2.7216854426998704,1.858984905882041
2016-03-25,0.7329599881483322,1.2840340412673772,2.046460417259849,1.439608077292098
2016-04-01,-1.3885140935506768,2.082192224394876,-2.104037116393796,-1.0701362957463125
2016-04-08,0.779603341538504,0.9469448775048832,-2.2093385863240895,-0.6134659584531494
2016-04-15,1.0419881006911105,-0.9093970988081481,-0.42710513084051893,-0.8200676095626145
2016-04-22,0.9169675922290601,1.2850170697167727,-2.1009395673634277,2.6249731830480565
2016-04-29,-0.29088488796310275,1.2220311666351407,-0.22537598295973915,0.880907378090017
2016-05-06,-0.5091371426204212,1.5377113584756468,-1.0950991342383871,1.372255924369217
2016-05-13,-0.9549235259714863,-1.0656013703893272,2.2164746748764967,-3.760816356724844
2016-05-20,0.6253198235971604,1.034335240136044,1.4415081328875994,-1.0830817147095098
2016-05-27,-0.7297056135800974,-0.6483609993329251,3.2892228688385234,-3.3025634370553085
2016-06-03,5.067336086128165,-4.6377178788892,2.805846059072212,4.102668458188443
2016-06-10,-1.6740234278791952,-0.9474658513866139,7.196618268169288,2.4058268010790367
2016-06-17,2.0312111290002255,-1.5742362828671839,-2.5511714529891414,2.4026111007925146
2016-06-24,1.849598768956179,2.260624629529582,-2.1892819044594565,8.11107737590377
2016-07-01,1.2014406816855425,-0.6195771176020055,-1.4029054114314325,1.4286137907272773
2016-07-08,0.7202581166330271,1.185628880553681,1.7262467391557799,1.2725904865678297
2016-07-15,0.028943143135128357,0.1573449493827619,-0.7666011365518257,0.7331377893365846
2016-07-22,0.10580436773450907,-0.27171663270329827,-0.4932861958224286,-0.5531966782890387
2016-07-29,-0.2306703114608304,0.7873580524454455,0.018417711723063057,-0.2606870700640286
2016-08-05,0.34146074636911994,0.5044211724796455,-0.30944392071996396,-0.04407241051594979
2016-08-12,-0.0419427315748826,0.7188113117014159,-0.20672662904431338,0.5558325292127632
2016-08-19,-0.016081582280251805,0.7205175558078585,0.026136662755743556,0.468082750855245
2016-08-26,-0.017693937357126543,0.7208494875854803,0.03436784835158968,0.45743709963974777
2016-09-02,0.15540961070346304,0.39596287301412647,0.3335492409281161,0.5465219094469405
2016-09-09,-0.05462745922277823,0.8706224367973103,0.4048561013265597,0.7191812450788536
2016-09-16,0.11126983479886365,0.2962356766045502,-0.08469887553951455,0.4308452604513714
2016-09-23,-0.08229940202021346,0.7877995428811015,-0.03345902816359114,0.547936605893186
2016-09-30,-0.10459288587666604,0.8545863383161962,0.49626883176861974,0.4031523358106461
2016-10-07,-0.016769143562550763,0.12430569232515445,-0.481627489043871,0.8732577534580737
2016-10-14,-0.9440469851973219,1.8971136109729505,1.0991067191846948,1.1342209441039746
2016-10-21,-0.7859707276280632,1.8320098707587964,0.8150842968110765,2.1121517895989874
2016-10-28,-0.6196919479264542,1.4850176192695557,0.8651067987960697,0.8278862672971954
2016-11-04,0.20650383384053317,-0.723528559142538,-1.2210946182418625,2.164706065338432
2016-11-11,7.299328329528677,8.731846456143138,20.024369062815317,-19.082082857428205
2016-11-18,0.7055747686512577,0.7676941501503993,-0.39978961132732804,-0.6186978372017915
2016-11-25,0.7153012528269578,0.7755602556660284,-0.4081680491550763,-0.6377942924174095
2016-12-02,0.9329191401500134,1.513269041372566,1.0091342776228152,0.9709431642370125
2016-12-09,0.6963650568386726,17.358786763684066,18.907905453407537,7.264710716232408
2016-12-16,3.046121542283805,-2.1676423810514294,4.019628429012358,4.1531479518984895
2016-12-23,-1.6067450198686668,-0.8393265822485585,2.5265901942684446,2.814051281022265
2016-12-30,-3.406578089601557,4.291128237820773,-1.816851009675518,-2.0695377176721275
2017-01-06,2.8334529839877636,-2.956703493382929,-3.8085153589585263,-1.3840312608802527
2017-01-13,3.9185726833718455,2.294184643826899,-11.318861016011049,-3.2168500661785773
2017-01-20,1.4664091884075936,-1.1804758294067752,-2.4681732086278925,1.7230484166037354
2017-01-27,2.204060835759641,-1.778727525636829,1.3713811415523591,1.2472313975794096
2017-02-03,1.2792481680973355,-1.1107269446428436,-1.8789990012317141,1.3706088385674589
2017-02-10,0.9993705777352984,-1.0107138585987137,0.7840903590929383,0.597105177923712
2017-02-17,5.811310212597894,-8.744348281884502,-6.263897304874198,5.742610313574502
2017-02-24,2.253034102522523,-2.2515640738374163,-2.5259586767399225,-0.9022715191367969
2017-03-03,46.96088057931449,-72.01437766383397,-108.92462652884966,97.86877065764578
2017-03-10,-3.919591249353245,6.517552166180348,3.0442623677318186,3.0650085863171137
2017-03-17,28.50319937141282,36.07760303198587,-76.34350707932731,-22.951664592595662
2017-03-24,10.691818227245165,-17.171696109857187,-16.313036343125052,22.04495825673527
2017-03-31,2.0432163483156813,3.8864920925925777,-5.162510401692926,4.348276601687548
2017-04-07,0.9897134390148707,1.9022996299012869,-2.0384111889737606,1.9097782059475223
2017-04-14,-4.37631920406054,7.087998798329524,9.746323655674697,-5.225063801013996
2017-04-21,-0.0577118144248929,0.027831270628401794,-1.1114743517408252,1.0734058807408118
2017-04-28,-0.2601241766921485,-0.12015486077503179,-1.9795444671628286,2.394960611965799
2017-05-05,-0.02011945766831924,-0.3391325811674575,-1.0678662851557945,-0.2636982642571877
2017-05-12,0.10256348488789362,-0.4891874307631312,-0.2728204078841574,0.6285725410875683
2017-05-19,0.08612514597990933,0.18733685485265605,0.5967239449233694,-0.20298859269118313
2017-05-26,0.460797994664811,-0.012396304514609158,0.41308045897536305,0.24688661431912617
2017-06-02,0.007594783108902825,0.8259339328024972,0.09216063744438904,-0.024205809118348326
2017-06-09,-0.02459408826941023,0.8656513222901842,-0.03641100671145714,0.424544747274605
2017-06-16,-0.08415561422201612,0.8228610043937309,0.840569849502066,-0.21899299822923113
2017-06-23,0.060830057090043965,0.6743237388175104,0.1553802715873786,0.00017696180421361563
2017-06-30,0.16158762124788856,0.3188208033642279,-0.1329203379086263,0.5031070505411512
2017-07-07,0.11396836884294115,0.30429328263302713,0.3758802031903761,0.21716655798403406
2017-07-14,0.1580987694467848,0.3234812395251483,0.16283567829147386,0.00249511158145177
2017-07-21,0.158096584647257,0.322300130932479,0.16616691921465343,0.0009120749818939955
2017-07-28,0.1693214724450791,0.3453400207887296,0.18195040014093283,0.02499941438946529
2017-08-04,0.28183243414328774,0.5143668660283036,0.1630218178365157,0.03845990793705914
2017-08-11,0.07443710887294097,0.6337187863428037,0.1971603909375072,-0.11724227572226922
2017-08-18,0.1536716067040677,0.31537539105984636,0.019329474562367367,0.033157080022190574
2017-08-25,0.16009689370297914,0.3292662027455521,0.0411747820090745,0.037950462747027944
2017-09-01,0.15846166614570828,0.3357995392651735,0.04877217048883046,0.036221827377786335
2017-09-08,0.1583337764156002,0.3381309221284734,0.05103307858162915,0.03910392680355159
2017-09-15,0.15243024212708312,0.33518558455312497,0.03951589059858289,0.03407822105056833
2017-09-22,0.05800062699453701,0.6541543520097505,0.048330622521818356,-0.10686946630186644
2017-09-29,0.13439692511299545,0.3107774639626174,-0.008392460513994827,0.02112734019647284
2017-10-06,0.13976130159970673,0.3194750236482268,0.14989649037773564,-0.012465772620809945
2017-10-13,0.15536680699843036,0.347713215918538,0.0651788730048618,0.046112406691791064
2017-10-20,0.06250085590958654,0.6348371896395475,0.18657204602931937,-0.13301685270416813
2017-10-27,0.12899855360528678,0.30764320315719784,0.13780091830804544,-0.01994601485187464
2017-11-03,0.059437775289892913,0.6518552031350024,0.017596626038571248,0.03943395625309723
2017-11-10,0.05294519016751098,0.6662486139790723,0.007935982281521625,0.03581910740037901
2017-11-17,0.13073324271401293,0.30505013274925374,-0.005850424176068021,0.020052524895470908
2017-11-24,0.07492310498657051,0.6386724719969978,0.1542978721317121,0.0038045730157116875
2017-12-01,0.12060628784572103,0.2759416425341025,0.001197711532248319,-0.1684654145146308
2017-12-08,0.10593405082177354,0.2640702400338695,-0.08614783998275241,-0.002063009290414461
2017-12-15,0.114561188762346,0.257991074504617,0.10803114832776275,-0.055709930050614476
2017-12-22,0.11284039123224382,0.2631299923754168,0.10541116004573212,-0.04857504392966182
2017-12-29,0.12478208508604405,0.2817274281349651,0.1208427177484502,-0.031038473696366115
2018-01-05,0.14186863688941698,0.31147550137448143,0.1433354115809795,-0.011137738866897284
2018-01-12,0.14664362024023536,0.30795245330224097,0.17743075148434057,-0.1392992724173348
2018-01-19,0.19199230682729201,0.1548262537399071,0.1647229244400906,-0.0012503584549520552
2018-01-26,0.10687627959152213,0.6331543500023138,0.1652492436945699,0.03223392678001982
2018-02-02,0.18593554913820715,0.06409775050537059,0.021802722369018035,0.48489820430950886
2018-02-09,0.07324841313879871,0.2246083330802623,0.526050247520194,0.346888112160741
2018-02-16,-0.045174090767272634,0.8288210991328426,0.44840563457452753,0.32686462868949684
2018-02-23,-0.10836191054205191,0.9922117564830482,-0.24964163484707963,0.8751537273924419
2018-03-02,-0.010294666451147766,0.07618883324147875,-0.16926660647417086,-0.42838892353916314
2018-03-09,0.04438184626680919,0.20440651907063312,-0.27319806476809355,0.644266739759733
2018-03-16,0.04758988277434087,0.2194467652311381,-0.852469265020514,0.7930208293705527
2018-03-23,-0.10431670095934575,-0.0006214356014188072,-0.7059522019493056,1.1200627737005768
2018-03-30,-0.42333733630342785,1.2908538435435148,0.9943648330064363,-0.6432140290552271
2018-04-06,-0.11443372509068483,-0.16219364724307206,-1.2652821701971404,-1.6709844046292002
2018-04-13,-0.08638510595854332,-0.08650651323251013,-0.3811607423020492,-0.7508825370828266
2018-04-20,-0.14137340160004985,-0.10831170742078666,-0.9047854231985142,1.332450114773179
2018-04-27,-0.21065165221038384,-0.3403851622592273,-0.7205477431056849,-1.1512088172932728
2018-05-04,-0.046602695997421506,-0.10446893935697443,-1.5034410484128773,-0.738834359353857
2018-05-11,-0.016942202609046497,-0.06158341478852403,-1.3668561008129807,-0.6544740410078588
2018-05-18,-1.1614183721120668,-2.6748552718986858,-9.608564029709973,-4.41148228330401
2018-05-25,-2.5006436569713415,-5.648460432053209,-18.946912944713507,-8.695900375368577
2018-06-01,-0.9276712389875517,-2.157001104226156,-7.9235500365800755,-3.7571639770552854
2018-06-08,-1.0745797044410788,-2.390545223499476,-8.726471653070645,-4.221025200467469
2018-06-15,1.186641076802645,2.444367547616455,6.634049984288003,3.2770723550563234
2018-06-22,0.883237423877202,1.807873178385277,4.6775332647429515,2.3779890628060008
2018-06-29,0.4477283884633585,0.9006724182256676,1.8198946576671637,0.9273286751476231
2018-07-06,0.5049259276350089,0.9458042787681116,0.8929482599221813,1.0293790781187788
2018-07-13,0.689349768177828,1.3068395862043811,3.39952769993817,1.8515716505124107
2018-07-20,0.7268038709404587,1.4323691585824028,3.2060631575054845,3.593659868628413
2018-07-27,0.7139712365145017,1.2954361891874147,1.3809382354621018,1.7955966352316604
2018-08-03,0.42217838362400073,0.825794506632703,1.6611448130326392,0.9166896605880581
2018-08-10,0.3280283491909679,0.6421222093878649,1.0032624846947795,0.526401577803461
2018-08-17,0.30625026884193307,0.6129142622869863,0.8701053991145647,0.4867154519534109
2018-08-24,0.3032336260220778,0.6222258561630287,0.8860926568947922,0.5032102141538333
2018-08-31,0.2895589333422459,0.5896765556167116,0.7850562401236187,0.43486882116749337
2018-09-07,0.28836284032162496,0.5807696413572101,0.7599997649463158,0.42495053642820635
2018-09-14,0.36930899133019013,0.7514843628629633,1.25190290932002,0.7682601541848263
2018-09-21,0.32214621298163415,0.6465285886370671,0.9035247252393117,0.5209603518011154
2018-09-28,0.3644413535935509,0.7185569220479118,0.44226045803787484,0.9573363975149688
2018-10-05,0.3501702448758568,0.6917304948037271,0.4366598792621037,0.8426197888074445
2018-10-12,0.3049562101314047,0.5991309998261638,0.41201700995087753,0.37980626640072057
2018-10-19,0.30795475148786844,0.6038176539042532,0.4294102649167275,0.4014399354483901
2018-10-26,0.311129893714132,0.6067425788834053,0.4412058288106138,0.41233688371911
2018-11-02,0.3230424274952721,0.6333334493293648,0.46107997551189106,0.4520744772392257
2018-11-09,0.29190178487489815,0.5975435923520509,0.7359801038236551,0.3841116959583045
2018-11-16,0.28983202500490934,0.5927904457758633,0.7358215459638212,0.38787002262757336
2018-11-23,0.3032238959169087,0.5979133398339669,0.4381393786860882,0.42101834257238524
2018-11-30,0.3210497945608948,0.6256950803565147,0.4744738810267665,0.4953239594590659
2018-12-07,0.33234534303932906,0.6628722749521896,0.4352144667762672,0.8528185130139531
2018-12-14,0.2866482084911961,0.5381935699751614,0.5260087371754364,-0.17500775973946764
2018-12-21,0.31214063490967225,0.5972550155601133,0.45607824753485293,0.4611820188275423
2018-12-28,0.33163178301936114,0.6305209441117303,0.4989646201957295,0.5360099128433999
2019-01-04,0.35771719024691606,0.6715960724488257,0.5597406722999665,0.6454371144209088
2019-01-11,0.3631969919646849,0.6839749895438909,0.5731134400560149,0.6770267381872637
2019-01-18,0.39202082217014933,0.7406676967638588,0.6450277895187639,0.8011943606662646
2019-01-25,0.5247533023113444,0.9774573706048617,0.9683274903712072,1.3513388780810203
2019-02-01,0.8221337341603672,1.541759291412931,1.7175533688066085,2.5896628329331275
2019-02-08,0.734391258157336,1.401092115234773,1.5445524626282494,2.2364786357091333
2019-02-15,1.031186085058157,1.9527820469284656,2.2708181908850418,3.378875775278136
2019-02-22,1.2597808986027346,2.8287861866978368,5.9487360545885055,7.918135518294332
2019-03-01,0.7279247208853574,1.3913797901420875,1.4089367310965024,2.1068124868907256
2019-03-08,0.6365205446861393,1.0570174025617742,-1.069632830929213,1.7692021331734742
2019-03-15,2.074499833606076,3.8349603750017174,4.437265595468801,7.195364226348373
2019-03-22,-0.8762564636398942,-1.53746333097574,-2.2402252887356378,-3.9367181975238186
2019-03-29,-1.209852821042447,-2.0930856323244083,-3.0405511994726218,-4.940102240009736
2019-04-05,-0.8452093466762438,-1.4052420601520028,-2.274204137823464,-3.452590779783506
2019-04-12,-0.10637619239789693,-0.12616092074205892,-0.4971079071161433,-0.9581112138990442
2019-04-19,-0.06470670956316071,-0.05862690074453093,-0.3933440831664563,-0.8345038889089872
2019-04-26,-0.24188841405653838,-0.36399706885988814,-0.7957578996082906,-1.4207191513858777
2019-05-03,-1.3525138399399594,2.4140183997834623,-1.2358170756228108,-1.4228304645889283
2019-05-10,-2.0778779294290004,-3.593790962911914,-4.950835200115704,-7.712241766720842
2019-05-17,-0.44232708057976655,-0.8246873534082804,-3.3131634703186217,-2.043880180408277
2019-05-24,-0.466890785710929,-0.7464793189194903,-1.21646770468556,-2.37606060426591
2019-05-31,-0.13355874147806432,-0.18517845414023282,-0.4691598766817825,-1.1439289372348433
2019-06-07,0.07883757977246664,0.19066719804901688,-0.023943382785503897,-0.3612374860881311
2019-06-14,-0.4304678250739966,1.5149094020207807,-0.2141386372042795,-0.22245782964237373
2019-06-21,0.10638161682701941,0.2493922806738018,0.04193607035601751,-0.2408125943535434
2019-06-28,0.09865509197029743,0.24403005952778667,0.0372818734553261,-0.2478165974509857
2019-07-05,0.09835780489438029,0.2517726611422576,0.061379844291094006,-0.21572006463350696
2019-07-12,0.05023530971854295,0.16141383326174175,0.09295933453063882,-0.6391625630582325
2019-07-19,0.11469547823654436,0.2768860330593339,0.10406951449820553,-0.1523273155361114
2019-07-26,0.17671870223329755,0.06274503674842369,0.11338314485706932,-0.1812848765109033
2019-08-02,0.17153443604697077,0.03244295736526104,0.11762776610775462,-0.184223336565216
2019-08-09,0.09984491411066587,0.2560950729403406,0.09447940586936104,-0.17552367886447015
2019-08-16,0.03381785080297639,0.15512301985813082,0.016357455439261703,-0.3057890612233023
2019-08-23,0.01612071719691066,0.12063472845713574,-0.00041799768340111676,-0.3270269982568423
2019-08-30,0.03447218586895684,0.14881303014325153,0.02223124515000885,-0.2730084858687257
2019-09-06,0.5889952364260314,-0.171207884682538,0.02414719559171137,-0.2070577278904901
2019-09-13,0.05908331495513053,0.201461655392826,0.06671732036407294,-0.1762367493220732
2019-09-20,0.05994658850172774,0.20256340181292365,0.06924762228560562,-0.1701390951185203
2019-09-27,-0.04721927108946522,0.04381745027054254,-0.04732149663143331,-0.34628199689744615
2019-10-04,-0.006442211629587136,0.12158919126429818,-0.01050441261034335,-0.27425383622977784
2019-10-11,0.04064881585667646,0.18727217096093496,0.042941151926374654,-0.1881552687553632
2019-10-18,-0.005657380423566005,0.12583339953419814,-0.005485053988391664,-0.2583694582846092
2019-10-25,0.0485601389194229,0.20370544631280973,0.058741212059275155,-0.1621056957028294
2019-11-01,0.04577028241922587,0.19483677734097238,0.14326035723504343,-0.3630221334260727
2019-11-08,-0.004634561504248458,0.13940129792843337,0.011632297150477672,-0.2182905243689871
